{"sizes": [11, 50, 3], "weights": [[[0.18607911301478472, 0.24357644440678458, -0.08428497641440548, 0.2787572143318773, 0.14374942986823966, -0.2811688598713067, 0.2924826347212409, 0.22072923464241678, 0.060867928097609415, -0.19289997550270394, -0.1238417606934959], [0.5543854549089614, -0.5282956012551308, 0.06000231339404037, -0.2320353083962477, 0.19771053694626875, 0.4490916142298705, 0.3849823247388973, -0.3722220745466623, -0.12455073830025484, -0.2853211950234092, 0.1802497572180835], [-0.07447562636414735, 0.302047719310124, -0.24575694277147864, 0.015412069307045207, 0.16616424911619032, -0.006958620936986643, 0.3341143501666218, 0.08245248999852152, -0.41922020118405534, 0.08039070068985098, 0.3082753401042265], [0.6350543757967038, -0.005622611037979585, -0.06868919355768933, -0.2577319305500544, -0.21459015295819917, -0.26401997194120763, 0.48359478767225816, 0.1128349792628825, 0.0640488069241357, 0.3475268545947477, 0.1554843299615184], [-0.03760847599067979, 0.18595974744627608, 0.07480392348556118, 0.48851745296186716, -0.4757017213504257, 0.012782336108724533, 0.16460328376477396, -0.2631507677606555, -0.08530694875563598, 0.600197307885396, -0.3433256742608102], [0.1480220044292905, 0.2788719236809955, 0.26013154607093325, -0.38177763783691404, 0.2878651935713593, -0.42830842478082115, 0.10739495598796475, 0.10828096520908215, 0.031917175084442834, -0.31787810247768095, 0.049351418125781386], [0.49762555921133117, -0.3536351676198752, 0.1452458791470415, -0.12693787614520613, 0.04972278326288763, -0.011581503181290519, -0.3507853748325076, -0.24615069557271935, 0.010727623496716509, -0.29675425395158567, 0.6656352247025843], [0.9903462258535624, 0.29244799984843656, 0.546187033635214, 0.2998645152169056, -0.25592795839226845, -0.22902617967270636, 0.969879772596459, -0.13864309781208972, 0.019533749200536677, -0.14385729629526692, -0.4203094181734742], [0.5757851290495262, -0.22466456385850384, 0.396400848773513, 0.2186043330124766, -0.10081787897169857, -0.08434983597577593, 0.5561711060126034, -0.049565796544676244, -0.574117551550966, -0.058199222460554256, 0.17389043167055443], [-0.24854536657709134, -0.27689877166482574, 0.49267657635346324, -0.05921021144107151, 0.37002725705530204, -0.7540332865613081, -0.07631006556534461, 0.18686451909985222, -0.13249045142808866, -0.11043748407784719, 0.08174246625145808], [-0.7092673324990864, 0.03498028783711745, -0.1558851726383375, -0.12613497768115686, -0.15292189913397572, -0.19379013465949133, -0.050366851225626084, 0.1020861241440194, 0.4870086969189669, 0.6477288529051192, 0.17958871789954597], [-0.7513405642695667, 0.1966237912524862, -0.48315014903088543, -0.13813076270421726, 0.08066155349297323, -0.2879966643879676, -0.08582776706688848, 0.32620391830265827, 0.027109919981516652, 0.08983402287401797, 0.689165720991189], [0.15357885605907431, -0.12960444310647667, 0.06409442397309392, -0.7751869339093512, -0.25424580864813034, 0.0760434764510634, -0.1395037911052818, 0.5618298037745985, 0.002424472733338989, -0.11621221978123208, -0.5474878320034058], [-0.16430208052496229, 0.05486692576603088, -0.8360890193510861, 0.2910115844514525, -0.17616451476963885, -0.3995000188479999, -0.13676634387915151, 0.35489841601687283, 0.23899427195855208, 0.22517412025539582, 0.17438772201417474], [0.4873429888655688, -0.12001721067390518, -0.44169052214742693, -0.07673723086881458, 0.21960147192744356, -0.19220484575097646, 0.4710105730211284, -0.03514611381611278, -0.08452661435325955, -0.119355440732827, 0.19015356350274748], [1.0504546205042649, -0.3498882300242758, 0.4647095206485477, 0.0038125282773445817, -0.5549296584982738, -0.3727504781884178, 0.713289908644211, 0.07501567976825277, 0.22157848928935017, -0.2597941249132884, -0.34989774004509705], [-0.5314691319475369, -0.3767957960968242, -0.3080165412629035, 0.02894775877932491, -0.15746804180974738, -0.41245691866802275, -0.6896522528419349, -0.27889317437868966, -0.1805276010984297, -0.23805085002733034, 0.12874527817369713], [-0.04114872965324931, -0.6117751357697386, -0.2543750323186595, 0.1321407444637534, -0.013103304470643047, 0.2006145949139661, 0.1810525040596332, 0.17133099007127378, -0.23634523891160733, -0.02231450830202472, 0.12729881575271473], [-0.37532961920985203, -0.15016508246844443, -0.39620605118888463, 0.18566136156679303, 0.5477677588774503, -0.017137890953983683, 0.13061452891052813, 0.034883110981882515, 0.08482147495733385, -0.11387964733258417, 0.23535592986897738], [-0.7220951716843074, -0.10995184832754021, 0.29057220497223907, -0.20495860583221487, -0.009264348926772225, 0.27533709810524737, -0.19751636995064792, 0.09844859454989324, 0.29982066559376797, 0.07990908328291382, 0.11825336594091068], [0.9678388497045399, 0.5116035879846149, 0.1975330299534779, 0.03425895479390738, -0.38218337355184323, -0.2701263101061808, 0.8500313947825953, -0.08583430965247597, -0.43045978581295097, -0.3169372664652207, -0.26638550862365507], [1.0291847323134604, 0.2923558471734748, 0.5448780857891902, 0.3240467187486313, -0.350322583420946, -0.1453704060569337, 0.8261804356593591, 0.16646880202260048, -0.4139949776155893, -0.16831282324055663, 0.107089951023114], [-0.2430278233858778, -0.2041015451918404, 0.07687733346386665, -0.6383426075054468, 0.5466944181992349, -0.13832826771584267, -0.06130461376561833, 0.1406515664993958, -0.41540760455103537, -0.21931525490284154, 0.3066416242794427], [0.512397100910833, 0.12624540646451474, 0.11174306977419964, -0.36609678364938697, -0.5074739446538549, -0.25858109454442524, 0.7538571132582464, 0.06199006077787143, -0.3391803545078152, 0.7523185911636165, -0.16449873888423247], [-1.0515617891443014, -0.07715616037490004, -0.12269200288355121, 0.24346194772347435, -0.30884054317760695, 0.2874520147303657, -0.7629731883236309, -0.2633072335089231, 0.48259427994539034, 0.07561346459866382, 0.1838774602108764], [0.30007966835166183, -0.16922273059196674, -0.15877105298357116, 0.07687064532033651, 0.32860311416187366, 0.18607082686628634, 0.2294721751652215, 0.2108959912894136, -0.01855994845661681, -0.21739783932869028, -0.26412842560740357], [-0.8110679673874213, 0.07827195137127393, 0.008732544351597066, -0.2968825949975971, 0.4616121937636013, 0.4412076274662477, 0.07537528937638036, -0.3416848611038067, 0.2594206029034774, -0.0218546016859994, -0.3095300508985647], [1.2694740131306725, 0.17714133753805036, 0.15309955314178395, -0.6569102738651198, -0.07847920971939275, -0.29178551540481484, 1.1895001139824297, 0.02891541346716197, -0.604582143033754, 0.0846191038825326, -0.1783927888702682], [0.9311718359033666, -0.4139907236404922, 0.29280800203647533, 0.10453626231464436, -0.2007822458646754, -0.10469334862129777, 1.1282173345369464, -0.2827637133150342, -0.2756910117210204, 0.2803431612660471, -0.40689668419168223], [-0.3928914861951107, 0.4305677603557428, -0.5508468452339073, -0.1995433164653312, -0.2928646772242265, 0.21092719793405149, -0.5345036560813949, 0.3506967394178263, 0.12121624939885921, -0.4779434560735438, -0.03738749266163158], [0.9764906670320184, -0.007826601107238498, -0.15737672246658563, -0.038510484991613726, -0.8673095936514569, -0.24809805527304715, 1.4370690998865518, 0.7932760003404608, -0.7159791649592766, -0.02313863011432319, 0.062140906947275], [0.8238511692844721, -0.003965365827526461, -0.6040646119497209, -0.14926033035843256, -0.27457272272792416, -0.010298121450601362, -0.3118926197764501, -0.1266202984840758, 0.039962015985141444, 0.15791280918271317, -0.06468309689265181], [0.3669406041069852, -0.15287665359558847, 0.07764410197960966, 0.08213201533696413, 0.12414721789319208, 0.18226542051492461, -0.5913643199711752, -0.09752225710927258, 0.34511183750516145, 0.34034493247990194, 0.8926376019455644], [0.5537530793854315, -0.21558033592992407, -0.0840891970404625, -0.7671043693793744, -0.08872362546612307, -0.21290817907012874, 0.42641277914281406, -0.07299851353298316, -0.06853077569832633, 0.3322453413271832, -0.025472939709511002], [-0.11502226836923433, -0.15548764010439664, 0.5203550555977294, -0.17778993251380631, 0.3257825652864963, 0.15509544154822685, 0.06603419853832147, 0.02419951501242605, 0.099482155957802, 0.07424198546073069, -0.14624161470249458], [-0.14183594769971536, -0.29625028592055846, -0.055332272179572525, -0.09674981147233541, -0.17525103639826115, -0.20376045607430557, -0.11875328227357762, 0.19002780505797653, 0.522581991307391, 0.5545843085302659, 0.40477836758501123], [-0.866319256567101, -0.3894342330473378, -0.27749794380694515, 0.3905750103392773, 0.07533529611213234, 0.3870606541102217, -0.3063601544291706, -0.21154586589179467, 0.002696356998888674, 0.4447176815110408, -0.0020086033437586685], [0.11138248828398825, 0.14669214086290241, 0.005825855380415314, 0.1467028932897619, 0.5938075875290602, -0.018694144992904053, 0.29171797817244083, -0.09239698150858887, 0.24179968468947918, -0.06441976033958625, 0.5117671073801687], [-0.4905147670438139, -0.008546373271076053, -0.18935993344611016, 0.21816014972100345, 0.29813890455644293, -0.27871562834129915, -0.1975824615926172, 0.015600286911857726, -0.40517158691680477, -0.18252866916268826, -0.5146438101332258], [0.47953531113786846, -0.19150151286785386, 0.32061884989764106, 0.10451196692581745, 0.10571308954075649, -0.6178739496900502, 0.5900977451300752, -0.23186161629715343, 0.03492552197902946, -0.13013334521758638, 0.2534600126254435], [-0.23670969783171858, 0.11374666496262868, 0.10206052950725752, 0.049894443664720324, 0.46448327426686525, 0.37548372911498723, -0.013669372461386236, 0.48170430293222666, -0.21086363373987208, -0.249552712897196, -0.2473593581841121], [-0.4951106089206631, -0.057731639192986545, 0.4816462425882214, -0.1267777608359952, 0.062442786064944134, 0.22706219825094762, -0.9425206978985535, -0.1616263609600271, 0.1277082528825599, 0.09280204804938111, 0.15167326194836184], [-0.006055297571492054, 0.05815410160826597, -0.15795353423832062, 0.42383463112677094, -0.082843620443387, -0.10348127987213067, 0.4954384879915682, -0.020817000957572586, -0.24334226833382552, -0.15100955622569995, 0.0002660161908438403], [-1.548918963773637, 0.3089581590733441, -0.5775249420671378, -0.21480164897196827, -0.025292533484147665, 0.6269448407868481, -1.4443634060561732, -0.45443427351020116, 0.2913913792486902, 0.04133085099040511, 0.37799937807619044], [-0.44389240303930194, 0.09560483306640309, 0.14301549413318587, -0.22474057848791504, 0.027397975883561316, 0.3302827782600044, 0.04481919646009315, 0.14583167578074407, 0.16835033500420443, 0.17892151596565625, -0.6160823781435372], [-1.4251807835702126, -0.10968422734574498, 0.15723398419119122, -0.3428092669706243, 0.25436604918630096, 0.90762997304598, -0.8228994499537504, -0.04307652947133277, -0.016792448663169108, 0.2983155624594317, 0.34936421165181], [0.470218369836958, 0.33810335858842067, -0.0004977862105753442, -0.4952865017204018, 0.10268703406141627, 0.24705275998607543, -0.34365622672557805, -0.3036913374068174, 0.383074714256908, -0.5981143237635409, 0.12274405222249052], [0.17668881049234636, -0.5527531631384608, 0.2060300464197167, -0.56740201698759, -0.06452898460902028, 0.07961490347646208, 0.2604229720031243, -0.5439600953662745, -0.0029842530981222535, -0.10794158211140102, -0.12836864474774942], [-0.06585707722558959, 0.2398537731861456, 0.36934599229355375, 0.09158618595383522, 0.17596044933534902, -0.49336111590362813, 0.10832801577730898, -0.2879351721101353, 0.12700440933944712, 0.10856891869517483, 0.03581877244881676], [0.8364074611344517, 0.2908039234254411, 0.6437305607199629, -0.03661270401905877, -0.3570653527463284, -0.11561861117914977, -0.12422006817934303, 0.3763067256451624, 0.07862196553326692, 0.06037406905943388, -0.653031902373462]], [[-0.04220658642201857, 0.25207647520335896, 0.033887095811348036, 0.20749168990610237, -0.358426833030837, 0.0939464997055915, 0.15057436855768988, 0.8173153290453288, 0.5120150668021225, -0.03949081132093016, -0.4948119824851898, -0.4530280042499313, 0.16254921509886375, -0.333154339876146, 0.21363050712771595, 1.0043417005988278, -0.4654529857660306, -0.1426516473345065, -0.42851070256432927, -0.582204451114401, 0.7965810539248059, 0.7490931095247402, -0.3472850177940741, 0.6158913576927892, -1.1316577729225874, 0.2524181678738542, -0.5143900126027715, 0.98325667227149, 0.9777421957212061, -0.5311701380286479, 1.0895628891942246, 0.2379345213265786, -0.29965024514269994, 0.3120872869554433, -0.08615328439062367, -0.0508343460309256, -0.6555759264831443, -0.13717821766945382, -0.4447463431498901, 0.662747452885632, -0.27283612251306893, -0.6605674231167877, 0.046043018172159444, -1.5266624402787456, -0.36355574932711576, -1.1788008636210725, -0.23911675011541414, -0.0014115895084001262, -0.15328787631358942, 0.4315692226760309], [-0.012859773328314969, -0.00741921480182098, -0.024912803067140825, -0.07303564610442095, -0.22224052106362088, -0.2747301428485995, 0.03059759273817266, -0.2943407896361208, -0.07448092523684353, -0.1544925573845538, 0.05414110306143195, -0.03083459390946804, -0.21179502430731215, -0.15923207383406607, -0.08466448926209942, 0.1058825674579502, -0.10837302924609148, -0.10755776909090445, -0.17000166058606864, -0.0047928360223666285, -0.41430220412780727, -0.37192390994756985, -0.4715002315634928, -0.005818212354893489, 0.07024985765509555, -0.12226241771562742, 0.03264262524787356, -0.5146748502881084, -0.046314205659707196, 0.008512412524720759, -0.016835879001430343, 0.08437682442392452, -0.3203377647819353, 0.009966081392539608, -0.18478279997783026, -0.3385099403863398, -0.16737936282303867, -0.04954635271463907, -0.2743645500062377, 0.025940913674415412, -0.18723337626757655, -0.2694890600611186, 0.0036959960399091437, 0.31637406002001967, -0.07525873288572017, 0.06565831681523626, -0.2628390140595204, 0.12801427149740904, -0.26175725011722073, -0.32911004909735064], [-0.3668064153992475, -0.4243428721009099, -0.02786396619827624, -0.6041803533350539, -0.24976329920821208, -0.2188003747857274, -0.026747319954151652, -1.0808804517978456, -0.5692840950954691, 0.13948222074893848, 0.4298942198781357, 0.6022841627508114, -0.012805401021907612, 0.08428255995957094, -0.5093702838659667, -0.8698965762907451, 0.5946554081907095, -0.05518866050516441, -0.0028031981338970734, 0.42564690287803236, -0.9103491476425969, -0.9566830090729574, 0.16768678443421664, -0.5910949885808612, 0.7415620296483303, -0.18578567571781887, 0.5002755835559682, -1.217770272192025, -0.9078979235260519, 0.44095519677815365, -1.2173209341906852, -0.44057926126283564, 0.09117328667005663, -0.5309161393724544, 0.00532582293973773, 0.06747403342639727, 0.5755631553712564, 0.07075599826878617, 0.16370506979242055, -0.4300700414059468, 0.20999442361977813, 0.7157483171851976, -0.2799311221168259, 1.3876244933414463, 0.13892334693075198, 1.1479199985235957, -0.197859920239929, -0.38087370065059006, -0.13987670402378427, -0.4235600205518878]]], "biases": [[[-0.5908445100933339], [1.0431072491582447], [-0.48365630206592747], [1.533150538513182], [1.9120413097258757], [-2.443924024670838], [-0.047158382692370646], [-1.0339305840581663], [0.3479367986140505], [0.8664922139500756], [1.0969176517755075], [3.6195733485907274e-05], [-0.5116302159639039], [0.5054665449249347], [0.14349059968630343], [0.39399839197385655], [0.6739516630373688], [1.083567210931315], [1.1408570867061654], [0.7322479106355388], [-0.8787912546478515], [-1.0356057700654888], [1.4092125378041715], [0.6091378551877319], [0.3081546585046977], [-0.8877320741986361], [-0.352818512996412], [-0.3611026069022708], [0.06730775811344404], [0.4067049147310553], [0.6083733756854425], [-0.08453924172668033], [-1.2309373012353875], [1.6168200922062435], [0.7023252122959341], [-0.6758825281172116], [-0.3178811299182715], [1.54201870566305], [0.31082085794567804], [-0.17906364338405015], [-0.7285666739505674], [-0.11013345434894879], [1.8344587510064352], [0.411617245795785], [-0.033736371088151834], [-0.024458815276397428], [0.5974868029770689], [0.2343871679597681], [0.9012476802879099], [-0.9700053260587911]], [[1.3468887695395169], [1.8210218210761284], [1.0281723388548418]]], "cost": "CrossEntropyCost"}